{"conv1": {"shape": [20], "data": [-0.07563641667366028, -0.0464327372610569, 0.15654681622982025, -0.11051930487155914, 0.01644006185233593, -0.24295686185359955, -0.006451512221246958, 0.3688070476055145, -0.30309000611305237, -0.004864270333200693, -0.08495931327342987, -0.017212791368365288, -0.10603515058755875, -0.0034748725593090057, -0.11353161931037903, 0.01576618105173111, -0.02511969953775406, 0.034921932965517044, -0.22746708989143372, 0.030789246782660484]}, "conv2": {"shape": [50], "data": [-0.07671497017145157, -0.0622902475297451, -0.023513082414865494, -0.049093376845121384, -0.014213400892913342, -0.016491441056132317, -0.03916780278086662, -0.053239353001117706, -0.0411774143576622, -0.04563119634985924, -0.032356686890125275, -0.010518571361899376, -0.028423845767974854, -0.03347289189696312, -0.06380835175514221, -0.0455942377448082, -0.06244776397943497, -0.01417748536914587, -0.10619547218084335, 0.03548169881105423, -0.009891980327665806, -0.008022126741707325, 0.0008209074148908257, -0.0959334596991539, -0.08844978362321854, -0.10498898476362228, -0.06835673749446869, -0.026696423068642616, -0.05584279075264931, -0.011195257306098938, -0.03689565509557724, 0.008689887821674347, -0.05984404310584068, -0.04255815967917442, 0.01568077877163887, -0.03328147530555725, -0.013833411037921906, -0.07020527869462967, -0.037936147302389145, -0.10262371599674225, -0.0683685690164566, -0.08675828576087952, -0.03864772245287895, -0.04319535940885544, -0.09038688242435455, 0.028375981375575066, -0.012812528759241104, -0.04726477339863777, -0.05034603551030159, -0.04616730287671089]}, "ip1": {"shape": [500], "data": [0.005066662095487118, -0.005373568274080753, -0.0024428244214504957, -0.0012370148906484246, 0.0012302800314500928, -0.0030978983268141747, -0.0050679901614785194, 0.0019581832457333803, 0.002099135657772422, -0.00777064636349678, 0.0026527801528573036, -0.001096085412427783, 0.0002842263493221253, -0.0007083436357788742, 0.006578810513019562, 0.0032669748179614544, -0.0020664497278630733, -0.0021883491426706314, -0.0027845341246575117, 0.0028228764422237873, -0.0019928677938878536, -0.004949485417455435, 0.005001621786504984, 0.004079201724380255, -0.008612753823399544, -0.002347733359783888, 0.01005574595183134, 0.004231986589729786, -0.010403161868453026, -1.6578844224568456e-05, -0.0013504981761798263, -0.0005366425612010062, -0.00011569951311685145, -0.005397384986281395, 0.0094929039478302, -0.005661953706294298, -0.004332458600401878, -0.007262574974447489, -0.006603550165891647, -0.010500529780983925, 0.006268504541367292, -0.010952203534543514, -0.0022688491735607386, 0.0002670827670954168, -0.003029185114428401, -0.0005499401595443487, 0.0016598714282736182, 0.0002654293493833393, 0.001093288417905569, 0.006550815887749195, 0.002504010684788227, -0.010126777924597263, -0.00020322849741205573, 0.0008635912090539932, -0.0031856743153184652, -0.01243332214653492, -0.0038892647717148066, 0.0031193625181913376, -0.005207508336752653, 0.004252458922564983, -0.008542516268789768, 0.0003420303692109883, 0.0006711272289976478, 0.0024248952977359295, -0.0004981925594620407, -0.0071061039343476295, -0.0029799563344568014, 0.00014543253928422928, 0.00472920760512352, 0.005209167487919331, 0.0022733479272574186, 0.011761955916881561, 0.0015344459097832441, 0.006154303438961506, -0.006914294790476561, 0.004539766814559698, 0.003507144981995225, 0.00352931534871459, 0.0038474518805742264, 0.0014561160933226347, 0.003455653553828597, -0.0022402950562536716, -0.009385938756167889, -3.9343427488347515e-05, 0.006843701004981995, -0.00035029512946493924, -0.0005196062265895307, 0.0014001720119267702, -0.0032423848751932383, -0.001383824972435832, 0.0037078268360346556, 0.001419345149770379, 0.001118050771765411, -0.0006715250201523304, 0.0004051133873872459, 0.003325867932289839, 0.0019685151055455208, -0.002599506638944149, -0.0009799411054700613, -0.006241207011044025, 0.0010798379080370069, 0.002595464466139674, -0.0024865109007805586, 0.0033283464144915342, 0.005109598394483328, -0.0007206894806586206, -0.0023595690727233887, -0.0071608335711061954, -0.003073527477681637, 0.0015469253994524479, 0.001373889623209834, -0.002029433147981763, -0.008533261716365814, -0.0013196718646213412, -0.003751096548512578, -0.001334305852651596, -0.0011477894149720669, 0.0003083786286879331, 0.0021884357556700706, 0.008635374717414379, 0.0028454463463276625, 0.005426572170108557, -0.0020701109897345304, -0.002980232937261462, 0.004947890993207693, 0.004093494266271591, 0.006630022544413805, -0.0011741414200514555, -0.002555810147896409, 0.006087474059313536, 0.0070745376870036125, 0.0013068253174424171, -0.005007710307836533, -0.0014642687747254968, -0.0018255251925438643, 0.00824505090713501, 0.0015287550631910563, -0.008485333062708378, 0.002569823060184717, 0.0027922687586396933, 0.006596449296921492, 0.006612378638237715, 0.00930525828152895, -0.0005695311119779944, -0.0031299099791795015, 0.00239766389131546, -0.0038098313380032778, 0.002458839910104871, 0.005884248297661543, -0.008075051009654999, 0.001122131710872054, -0.004522389266639948, 0.007958685047924519, 0.002648996887728572, 0.0032600071281194687, -0.005088767036795616, -0.0009742271504364908, 0.003641839139163494, 0.001653881510719657, 0.0005789230344817042, 0.002945811953395605, -0.004975025076419115, -0.0042383698746562, -0.0025826101191341877, -0.00798094179481268, -0.0009696680936031044, -0.0005922002601437271, 0.010790242813527584, -0.003446221584454179, -0.00259526283480227, 0.0028664085548371077, -0.0008487372542731464, -0.0027916491962969303, 0.0004748928768094629, -0.007674733642488718, 0.00020562094869092107, -0.0013894056901335716, 0.0026086417492479086, 0.011501243337988853, 0.00668021384626627, 0.010454565286636353, 0.0013158724177628756, -0.004378220532089472, -0.003287628758698702, 0.000522137270309031, 0.006159090902656317, -0.00012878430425189435, 0.0005065007135272026, 0.005619881208986044, -0.002705700695514679, -0.005410272628068924, -0.0004958288627676666, -0.0009396445821039379, -0.001742913038469851, -0.002818359062075615, -0.008357491344213486, -0.006691019516438246, -0.006102665327489376, 0.0016356381820514798, -0.005815652199089527, 0.00713704340159893, 0.0015105274505913258, -0.0007253231597132981, -0.0048082186840474606, 0.008852499537169933, -0.0016687237657606602, 0.003984889015555382, 0.0027066427282989025, 0.0027035532984882593, -0.01093014795333147, 0.0038471452426165342, -0.005556561518460512, 0.011162977665662766, -0.001682680449448526, -0.0019530253484845161, 0.0034688953310251236, -0.0025616507045924664, -0.0009413016960024834, -0.011163657531142235, -0.0029521104879677296, -0.013580827042460442, -0.005834370385855436, -0.0017990309279412031, -0.001382192363962531, 0.005696569569408894, -0.004544459283351898, 0.011886035092175007, -0.0014059827663004398, 0.007168424315750599, -0.0006729388842359185, -0.001154623576439917, -0.005572695750743151, -0.0026332768611609936, -0.001679451554082334, 0.0023149768821895123, 0.007683342322707176, 0.0006430994253605604, 0.004342022351920605, -0.004239182453602552, -0.0001747083879308775, 0.01620861515402794, -0.0007933317683637142, 0.004088538233190775, 0.0019062630599364638, -0.0108927758410573, 0.0038728672079741955, 0.004231298342347145, 0.0035182079300284386, 0.0028993673622608185, 0.011544287204742432, 0.003171534975990653, -0.005598977208137512, -0.0007280191057361662, -0.006101090926676989, -0.0047643911093473434, -0.009467680007219315, -0.007862238213419914, 0.00039749022107571363, -0.0023917683865875006, 0.0017758364556357265, -0.007073630578815937, 0.004072584677487612, -0.0019442634657025337, 0.00036027157329954207, 0.003268134780228138, -0.003024185309186578, 0.004308254458010197, -0.0016411489341408014, -0.002213587984442711, -0.0001184825086966157, 0.005472148768603802, 0.0019447071244940162, -0.003645634278655052, 0.0012962424661964178, 0.01497145276516676, 0.006109228357672691, -0.001594303292222321, 0.007584546692669392, -0.005736637394875288, -0.001995636150240898, 0.005557234399020672, 0.0069697280414402485, -1.5076029740157537e-05, -0.004392281174659729, 0.00469532236456871, 0.0018872871296480298, 0.003792895469814539, -0.0004480389761738479, 0.0005016563227400184, 0.003243822604417801, -0.0040830946527421474, -0.003480692394077778, -0.001912093022838235, 0.00613971333950758, 0.0005547787295654416, -0.008502165786921978, -0.003749614581465721, -0.005518101621419191, 0.005127103067934513, -0.00217585195787251, -0.005413559731096029, 0.005306084640324116, 0.0011888464214280248, -0.0018408733885735273, -0.0016466091619804502, 0.008143109269440174, -0.0027749016880989075, 0.008595350198447704, 0.006553361192345619, 0.00404720101505518, 0.005159094464033842, 0.010695304721593857, 0.006828398909419775, -0.009349183179438114, 0.001532099791802466, 0.0076529486104846, -0.00043988326797261834, -0.008732426911592484, -0.001238727243617177, -0.00128498999401927, 0.003477934980764985, -0.0028179199434816837, -0.0021469497587531805, 0.003963840659707785, -0.003627337981015444, -0.0010976652847602963, 0.0013113218592479825, -0.007586839608848095, -0.0003546678344719112, -0.0028987282421439886, -0.0028671161271631718, -0.0016896510496735573, 0.000153433604282327, -0.00599009869620204, 0.005209431983530521, -0.00260886549949646, 0.0003181880747433752, 0.0030108767095953226, 0.0011213280959054828, 0.009893661364912987, -0.001920387614518404, 0.003725574817508459, 0.00328308274038136, -0.003350561950355768, 0.0001403538917656988, -0.005802064668387175, 0.004513791296631098, 0.004892272874712944, 0.0007182133849710226, -0.0015219914494082332, -0.0035299276933073997, 0.007317735347896814, -0.004035003483295441, 0.0010016283486038446, 0.0002149180945707485, 0.0013222566340118647, 0.0021847360767424107, -0.00019489538681227714, -0.004028802737593651, 0.003137734020128846, 0.007357134483754635, 0.0012638039188459516, -0.010794345289468765, 0.0008536550449207425, -0.004994896240532398, 0.007057041395455599, -0.0024298785720020533, -0.0007854099967516959, 0.002480180934071541, 0.006372404750436544, -0.0038836414460092783, 0.005930717568844557, 0.005497741978615522, 0.0033498385455459356, 0.011209148913621902, 0.0012690313160419464, -0.0013828369555994868, 2.691196459636558e-05, -0.0036820932291448116, -0.0014575575478374958, -0.006519397720694542, 0.0016528392443433404, -0.004201660398393869, -0.003254191018640995, 0.011438455432653427, -0.0071935588493943214, 0.008807598613202572, 0.0014775926247239113, -0.0019897124730050564, -0.004071544855833054, -0.00024558338918723166, -0.0023906438145786524, 0.003620781237259507, 0.0018491530790925026, 0.008577226661145687, 0.008515582419931889, -0.004335717763751745, -0.002084527863189578, 0.001106191542930901, -0.003932144492864609, -0.006716422736644745, 0.0022672051563858986, -0.0014795332681387663, 0.00565798394382, 0.004489608574658632, 0.01186838373541832, 0.0021550210658460855, -0.005325614474713802, 0.01314703281968832, -0.0037975141312927008, 0.003441394539549947, -0.005884250160306692, 0.001998294610530138, -0.012490805238485336, -0.0023496379144489765, -0.0006398991099558771, -0.005665864795446396, -0.0012040563160553575, 0.004159102216362953, 0.0018449521157890558, 0.009380882605910301, 0.0011826014379039407, 0.0038201413117349148, -0.0019523960072547197, 3.350369979671086e-06, -0.005921113770455122, -0.005400475580245256, -0.004691381938755512, -0.006596399005502462, -0.004323909990489483, 0.000871166295837611, -0.002293995814397931, -0.004038442391902208, 0.001574784517288208, 0.0034774697851389647, -0.0017834969330579042, -0.004487340338528156, -0.0009012557566165924, 0.0030613690614700317, -0.002430038759484887, 0.005061219446361065, -0.013363202102482319, 0.0018474336247891188, -0.0002010584867093712, -0.0006513348198495805, -0.0010283550946041942, 0.00608967337757349, -0.0004112064780201763, -0.005804725456982851, 0.00028594789910130203, -0.0029437169432640076, 0.0007017530151642859, 0.00046548066893592477, -0.0009946079226210713, 0.0028245444409549236, 0.002753116888925433, -0.002986728912219405, -0.0007303855381906033, -0.00046789192128926516, -0.004555567633360624, -0.0078573077917099, -0.003520962316542864, 0.00032795683364383876, -0.0044000158086419106, -0.004213809035718441, 0.004279963206499815, 0.004749825689941645, 0.004174106288701296, 0.0006187765393406153, 0.0017763361101970077, 0.003056915709748864, -0.002462157513946295, -0.0013255253434181213, 0.0026451994199305773, -0.004539435729384422, -0.0024752451572567225, 0.013422050513327122, 0.0011182213202118874, 0.007863401435315609, -0.0055143642239272594, -0.004120737314224243, -0.0003760593244805932, -0.003238475415855646, 0.0005849582958035171, 0.00014072476187720895, 0.006174169480800629, -0.002444142708554864, -0.0011515452060848475, -0.00795006938278675, 0.0017108517931774259, -0.002573399804532528, 0.006730775348842144, 0.0033656673040241003, -0.006839586887508631, 0.0007362932083196938, -0.002566435607150197, 0.007639018818736076, 0.002855828031897545, -0.0005534556694328785, -0.0038274957332760096]}, "ip2": {"shape": [10], "data": [0.010019131936132908, -0.003895903704687953, -0.00770929828286171, -0.009760995395481586, 0.0011952462373301387, 0.024999232962727547, -0.046732354909181595, -0.013069280423223972, 0.08372734487056732, -0.03878329321742058]}}